<?xml version="1.0"?>
<opencv_storage>
<cascade>
  <stageType>BOOST</stageType>
  <featureType>LBP</featureType>
  <height>36</height>
  <width>36</width>
  <stageParams>
    <boostType>GAB</boostType>
    <minHitRate>9.9900001287460327e-01</minHitRate>
    <maxFalseAlarm>1.0000000149011612e-01</maxFalseAlarm>
    <weightTrimRate>9.4999998807907104e-01</weightTrimRate>
    <maxDepth>1</maxDepth>
    <maxWeakCount>20</maxWeakCount></stageParams>
  <featureParams>
    <maxCatCount>256</maxCatCount>
    <featSize>1</featSize></featureParams>
  <stageNum>5</stageNum>
  <stages>
    <!-- stage 0 -->
    <_>
      <maxWeakCount>8</maxWeakCount>
      <stageThreshold>-2.0205001831054688e+00</stageThreshold>
      <weakClassifiers>
        <_>
          <internalNodes>
            0 -1 15 -1048578 -3073 -550504481 -3113 -67109889 -67121217
            -1025 -1</internalNodes>
          <leafValues>
            -9.6633768081665039e-01 9.3023257795721292e-04</leafValues></_>
        <_>
          <internalNodes>
            0 -1 0 -270545009 -275512 -917780537 -1060953 -873481233
            -2098273 -809505813 -5169</internalNodes>
          <leafValues>
            -8.7541735172271729e-01 2.9568877816200256e-01</leafValues></_>
        <_>
          <internalNodes>
            0 -1 32 -18882564 -25166358 2134890968 -35654700 -1441836
            -144450 -70259988 -302260226</internalNodes>
          <leafValues>
            -8.1665366888046265e-01 2.7368420362472534e-01</leafValues></_>
        <_>
          <internalNodes>
            0 -1 3 -271675892 -284200017 -294239476 -269484285
            1794043390 -1074799681 -269489585 -1052913</internalNodes>
          <leafValues>
            -8.9190089702606201e-01 2.5791466236114502e-01</leafValues></_>
        <_>
          <internalNodes>
            0 -1 59 -33443 1046476798 -144506946 -167840777 -25952259
            -71430725 -65 -229388</internalNodes>
          <leafValues>
            -6.7568975687026978e-01 3.6046543717384338e-01</leafValues></_>
        <_>
          <internalNodes>
            0 -1 16 1778379664 -1530117366 -213265823 -838863931
            -1516246273 -828796722 -442835993 -1930436690</internalNodes>
          <leafValues>
            -6.7000609636306763e-01 3.6565792560577393e-01</leafValues></_>
        <_>
          <internalNodes>
            0 -1 52 679236465 -1404243553 -1257931026 -134421746
            2027903853 2073403779 -889637892 -369165320</internalNodes>
          <leafValues>
            -6.8587654829025269e-01 3.7230589985847473e-01</leafValues></_>
        <_>
          <internalNodes>
            0 -1 14 -436304958 -25062664 1255260653 -2627721 1409281014
            -603995973 -17368085 -554172561</internalNodes>
          <leafValues>
            -6.7146939039230347e-01 3.3974698185920715e-01</leafValues></_></weakClassifiers></_>
    <!-- stage 1 -->
    <_>
      <maxWeakCount>14</maxWeakCount>
      <stageThreshold>-1.4723405838012695e+00</stageThreshold>
      <weakClassifiers>
        <_>
          <internalNodes>
            0 -1 11 -2099201 -603137 -610281609 -1025 -239090721
            -68443745 -145761281 -1025</internalNodes>
          <leafValues>
            -9.1396349668502808e-01 -2.0998531579971313e-01</leafValues></_>
        <_>
          <internalNodes>
            0 -1 48 -8390657 -1297 -137234603 -1124389 -69339650
            -8961809 -339740677 -196616</internalNodes>
          <leafValues>
            -8.1481999158859253e-01 6.5532065927982330e-02</leafValues></_>
        <_>
          <internalNodes>
            0 -1 24 -538978316 -7876478 -275251720 -3142 -74761988
            -247381752 -370163474 795823102</internalNodes>
          <leafValues>
            -6.6923081874847412e-01 2.9709163308143616e-01</leafValues></_>
        <_>
          <internalNodes>
            0 -1 63 1054568435 -1936803946 -43190282 -1073742897
            -1289125957 -1404046593 611029213 230625772</internalNodes>
          <leafValues>
            -5.8095222711563110e-01 3.3129355311393738e-01</leafValues></_>
        <_>
          <internalNodes>
            0 -1 29 -812275190 -117479433 -237524001 -167935693
            -617616389 -201608982 -352850001 -20992081</internalNodes>
          <leafValues>
            -5.6612944602966309e-01 3.5253474116325378e-01</leafValues></_>
        <_>
          <internalNodes>
            0 -1 58 1009139445 771815260 -246982786 -34282503 -1343540
            -38957155 -1363674116 -16973828</internalNodes>
          <leafValues>
            -6.3680052757263184e-01 3.3520299196243286e-01</leafValues></_>
        <_>
          <internalNodes>
            0 -1 27 -4210697 1067407547 1360359931 -1080413482
            1590549110 -543733181 -69764289 1870600978</internalNodes>
          <leafValues>
            -4.9143490195274353e-01 4.1001224517822266e-01</leafValues></_>
        <_>
          <internalNodes>
            0 -1 65 1583799650 -1852087317 -1878001793 -562823358
            -610312411 -70562201 -123741062 -311297161</internalNodes>
          <leafValues>
            -6.3513559103012085e-01 3.3311924338340759e-01</leafValues></_>
        <_>
          <internalNodes>
            0 -1 62 1035075511 -1378632737 -242752225 -16842881
            467655549 1878229966 -1140909963 -17532572</internalNodes>
          <leafValues>
            -7.5097125768661499e-01 2.4579450488090515e-01</leafValues></_>
        <_>
          <internalNodes>
            0 -1 6 1858861989 1694497790 1393120120 -287378017 -81585245
            -644904861 -1152403483 -868352107</internalNodes>
          <leafValues>
            -6.3906580209732056e-01 2.7736762166023254e-01</leafValues></_>
        <_>
          <internalNodes>
            0 -1 50 647692247 -1780657925 -763261680 -638258178
            -358063784 -74741173 1602902764 -201523340</internalNodes>
          <leafValues>
            -6.2835967540740967e-01 2.8727364540100098e-01</leafValues></_>
        <_>
          <internalNodes>
            0 -1 26 -1225333849 -1090858113 -805221938 2113697743
            -343117260 981664295 -1048352153 -548307114</internalNodes>
          <leafValues>
            -4.9527150392532349e-01 3.7980225682258606e-01</leafValues></_>
        <_>
          <internalNodes>
            0 -1 22 -359248985 -151086272 -1119751137 -88141493
            -656550929 -221085507 295694795 -1451378</internalNodes>
          <leafValues>
            -4.9558469653129578e-01 3.7630882859230042e-01</leafValues></_>
        <_>
          <internalNodes>
            0 -1 41 1962868584 -35982865 -108664128 -1126642809
            -339492876 -1735589683 -241588100 -222693475</internalNodes>
          <leafValues>
            -4.3801531195640564e-01 4.3563276529312134e-01</leafValues></_></weakClassifiers></_>
    <!-- stage 2 -->
    <_>
      <maxWeakCount>20</maxWeakCount>
      <stageThreshold>-1.8431257009506226e+00</stageThreshold>
      <weakClassifiers>
        <_>
          <internalNodes>
            0 -1 31 -1025 -41954985 127078335 -2085 -619446273
            -878980879 -68944897 -67108865</internalNodes>
          <leafValues>
            -8.9690119028091431e-01 -2.1917808055877686e-01</leafValues></_>
        <_>
          <internalNodes>
            0 -1 60 -2621453 1062130518 -636890636 2109428701 -207887873
            -1684358210 -31721996 -571475457</internalNodes>
          <leafValues>
            -7.2694092988967896e-01 -3.7011552602052689e-02</leafValues></_>
        <_>
          <internalNodes>
            0 -1 56 803166963 936107479 -711614977 1072593909 2040241119
            -74724935 757979641 -1883587332</internalNodes>
          <leafValues>
            -5.3717470169067383e-01 2.4977780878543854e-01</leafValues></_>
        <_>
          <internalNodes>
            0 -1 8 2127002611 -1359023138 554861054 -556732009 -71566411
            -189161895 -73157517 -194510985</internalNodes>
          <leafValues>
            -6.9580465555191040e-01 2.0263786613941193e-01</leafValues></_>
        <_>
          <internalNodes>
            0 -1 40 839790391 782227935 1419237725 -543271169 -90489995
            265287579 681300021 243226750</internalNodes>
          <leafValues>
            -5.1290863752365112e-01 3.1428259611129761e-01</leafValues></_>
        <_>
          <internalNodes>
            0 -1 79 1342146319 1159712702 1509344807 634846562
            2145374159 1239994047 -723828069 1120403331</internalNodes>
          <leafValues>
            -4.3562024831771851e-01 3.2802832126617432e-01</leafValues></_>
        <_>
          <internalNodes>
            0 -1 28 1184767733 2026729961 -1769670435 -142617777
            1779256953 1555773785 -271058609 995253044</internalNodes>
          <leafValues>
            -4.9052861332893372e-01 2.8416648507118225e-01</leafValues></_>
        <_>
          <internalNodes>
            0 -1 37 2096895156 790548686 -1321004082 666768250
            2068007592 554565762 2064413596 1995920063</internalNodes>
          <leafValues>
            -5.9608632326126099e-01 2.2919769585132599e-01</leafValues></_>
        <_>
          <internalNodes>
            0 -1 21 244352132 -609516555 2052710879 -1880677165
            1085911663 2139341483 1267622143 -822103057</internalNodes>
          <leafValues>
            -6.7637014389038086e-01 1.9346769154071808e-01</leafValues></_>
        <_>
          <internalNodes>
            0 -1 66 796802661 652113813 -1851550209 -1372321446
            -74773539 2130942086 -101745924 -323159348</internalNodes>
          <leafValues>
            -5.7076019048690796e-01 2.3376713693141937e-01</leafValues></_>
        <_>
          <internalNodes>
            0 -1 9 -1861995601 -1365916801 1505851358 -285409538
            1485566527 -270832965 -652388225 1902536311</internalNodes>
          <leafValues>
            -6.9593328237533569e-01 2.0826216042041779e-01</leafValues></_>
        <_>
          <internalNodes>
            0 -1 70 -764739721 -87088265 -115206657 -548184875
            -353533298 -379092992 1641806827 -1088193690</internalNodes>
          <leafValues>
            -3.7525475025177002e-01 3.8923668861389160e-01</leafValues></_>
        <_>
          <internalNodes>
            0 -1 17 -1157890417 -1485361053 1149718779 -1217234809
            -1023217828 -537327496 -622331404 762658644</internalNodes>
          <leafValues>
            -5.4504960775375366e-01 2.5799947977066040e-01</leafValues></_>
        <_>
          <internalNodes>
            0 -1 47 641602324 -1930497380 -1341432998 -271526954
            1672443941 2098815619 -2305942 -34803714</internalNodes>
          <leafValues>
            -6.3640064001083374e-01 2.0821201801300049e-01</leafValues></_>
        <_>
          <internalNodes>
            0 -1 73 1540875449 244045154 1637310622 773691999 174810621
            1805373455 1970124021 746055676</internalNodes>
          <leafValues>
            -5.2580988407135010e-01 2.4212308228015900e-01</leafValues></_>
        <_>
          <internalNodes>
            0 -1 35 -1383016080 -137053362 -251422699 1158879195
            -1957530901 -83126142 973081043 258934991</internalNodes>
          <leafValues>
            -4.9293544888496399e-01 2.7746024727821350e-01</leafValues></_>
        <_>
          <internalNodes>
            0 -1 5 -1678017026 2068709587 -979824511 -785787058
            -343236614 -1181018977 973846589 394003949</internalNodes>
          <leafValues>
            -3.7019267678260803e-01 3.7353211641311646e-01</leafValues></_>
        <_>
          <internalNodes>
            0 -1 75 861859255 462246399 222794990 1862751134 -488997609
            -1919608736 1485284324 1145633748</internalNodes>
          <leafValues>
            -6.8443185091018677e-01 2.1566890180110931e-01</leafValues></_>
        <_>
          <internalNodes>
            0 -1 38 735915967 -1151356538 -726544050 -32336122
            1674273571 -138695650 -909678027 -88703114</internalNodes>
          <leafValues>
            -5.1635509729385376e-01 2.7541062235832214e-01</leafValues></_>
        <_>
          <internalNodes>
            0 -1 69 -1500564445 765427714 -1055122985 -277390882
            -514850817 -1456297750 1298573479 -1645221665</internalNodes>
          <leafValues>
            -3.7848228216171265e-01 3.8089802861213684e-01</leafValues></_></weakClassifiers></_>
    <!-- stage 3 -->
    <_>
      <maxWeakCount>20</maxWeakCount>
      <stageThreshold>-2.1474931240081787e+00</stageThreshold>
      <weakClassifiers>
        <_>
          <internalNodes>
            0 -1 36 -2097153 -538979457 735290175 -33557505 -73336129
            -115851153 -208671745 -69</internalNodes>
          <leafValues>
            -8.9643311500549316e-01 -3.3843213319778442e-01</leafValues></_>
        <_>
          <internalNodes>
            0 -1 2 -139738161 -642184211 -177802787 -188743823
            -1016449049 -262618419 -84876313 1908102123</internalNodes>
          <leafValues>
            -7.0592218637466431e-01 -1.1640906333923340e-01</leafValues></_>
        <_>
          <internalNodes>
            0 -1 42 -629145614 1515186407 -1908169680 -1331237222
            -219478290 -221516981 1708999681 1358430163</internalNodes>
          <leafValues>
            -4.6182507276535034e-01 2.5770622491836548e-01</leafValues></_>
        <_>
          <internalNodes>
            0 -1 45 731468664 2059809791 -1862166049 2111724511
            -1341178377 -27323969 -1704373889 1064989912</internalNodes>
          <leafValues>
            -5.8213019371032715e-01 2.1336053311824799e-01</leafValues></_>
        <_>
          <internalNodes>
            0 -1 54 -77071700 -385367356 -1023253519 -939351804
            -1689552579 -74745056 -347351171 135921565</internalNodes>
          <leafValues>
            -6.2901365756988525e-01 2.1175503730773926e-01</leafValues></_>
        <_>
          <internalNodes>
            0 -1 77 -278404884 1285014478 135237388 752220967 656407886
            640583965 -226755362 1181744748</internalNodes>
          <leafValues>
            -4.4304826855659485e-01 2.9585972428321838e-01</leafValues></_>
        <_>
          <internalNodes>
            0 -1 61 -935521707 -336116321 -116165681 2013112246
            -248814849 1806404124 -68173059 -707985420</internalNodes>
          <leafValues>
            -5.5286645889282227e-01 2.2694872319698334e-01</leafValues></_>
        <_>
          <internalNodes>
            0 -1 23 80653964 -273373567 -2027879469 1840248596 43241642
            -985443703 1632336298 -318837501</internalNodes>
          <leafValues>
            -7.6622390747070312e-01 1.5390570461750031e-01</leafValues></_>
        <_>
          <internalNodes>
            0 -1 19 1811802991 259905503 194626599 -544306929 1876129539
            1902081151 1860008262 1423437926</internalNodes>
          <leafValues>
            -5.1314216852188110e-01 2.2920611500740051e-01</leafValues></_>
        <_>
          <internalNodes>
            0 -1 76 -17843598 -18210954 1069415884 2095275883 -555762790
            -1631715330 -33702309 1914210234</internalNodes>
          <leafValues>
            -3.3243864774703979e-01 3.8685125112533569e-01</leafValues></_>
        <_>
          <internalNodes>
            0 -1 39 1056919143 -286059107 -1793764962 1434142175
            2079224432 -1159068834 -1161577633 1809975930</internalNodes>
          <leafValues>
            -4.6186557412147522e-01 2.7845051884651184e-01</leafValues></_>
        <_>
          <internalNodes>
            0 -1 34 958870705 -1095471650 -225593387 -1374522381
            -434126602 -619616071 -1160897729 -1410590131</internalNodes>
          <leafValues>
            -3.9317521452903748e-01 3.3239293098449707e-01</leafValues></_>
        <_>
          <internalNodes>
            0 -1 68 789754601 734908739 -184331288 -1243948705
            -1903462165 176783439 1639962097 1205860860</internalNodes>
          <leafValues>
            -5.0310593843460083e-01 2.5408074259757996e-01</leafValues></_>
        <_>
          <internalNodes>
            0 -1 71 -1370617055 2060665495 -1072643878 -490516385
            -1412156045 -165523445 1111738490 762346277</internalNodes>
          <leafValues>
            -6.8606573343276978e-01 1.7665450274944305e-01</leafValues></_>
        <_>
          <internalNodes>
            0 -1 33 -229153020 1548931098 1091616991 614060540
            -780053646 -1447002109 -1442182684 768599916</internalNodes>
          <leafValues>
            -5.5232352018356323e-01 2.1834133565425873e-01</leafValues></_>
        <_>
          <internalNodes>
            0 -1 51 2073816630 476035412 214401145 -2032762458 578697903
            -1828192186 1524370802 -304374805</internalNodes>
          <leafValues>
            -4.0016350150108337e-01 3.2278776168823242e-01</leafValues></_>
        <_>
          <internalNodes>
            0 -1 74 401345788 617526157 -1073485475 -568960618
            1392892655 -947159038 1028186587 967098800</internalNodes>
          <leafValues>
            -4.7007507085800171e-01 2.6429700851440430e-01</leafValues></_>
        <_>
          <internalNodes>
            0 -1 53 800026292 725930306 -1869970627 -48311986 -85236900
            2072740078 1931444856 -403178882</internalNodes>
          <leafValues>
            -5.1158291101455688e-01 2.3961296677589417e-01</leafValues></_>
        <_>
          <internalNodes>
            0 -1 49 -269615649 -1075908628 -1208188931 -1242370054
            -16833034 1861517278 2091739004 -1007550734</internalNodes>
          <leafValues>
            -2.7778083086013794e-01 4.5358729362487793e-01</leafValues></_>
        <_>
          <internalNodes>
            0 -1 12 1293921846 751368651 -805137709 -313001844
            1285040843 -75302565 -23485933 -991953995</internalNodes>
          <leafValues>
            -4.8652419447898865e-01 2.6097038388252258e-01</leafValues></_></weakClassifiers></_>
    <!-- stage 4 -->
    <_>
      <maxWeakCount>20</maxWeakCount>
      <stageThreshold>-2.4311759471893311e+00</stageThreshold>
      <weakClassifiers>
        <_>
          <internalNodes>
            0 -1 78 -70778913 -7347432 -754855593 -539274485 -192687381
            -243023669 -78933349 -1335365</internalNodes>
          <leafValues>
            -8.8573056459426880e-01 9.3922652304172516e-02</leafValues></_>
        <_>
          <internalNodes>
            0 -1 46 -10228801 991633734 611844383 836708119 286196428
            1075839107 1626541055 2105125547</internalNodes>
          <leafValues>
            -6.6314947605133057e-01 -4.1599967516958714e-03</leafValues></_>
        <_>
          <internalNodes>
            0 -1 30 -15211509 -781061681 -2027913187 -1252666606
            -938941953 -1325866806 -913256241 -632032603</internalNodes>
          <leafValues>
            -4.3290990591049194e-01 2.7013629674911499e-01</leafValues></_>
        <_>
          <internalNodes>
            0 -1 25 433536636 1289132190 339792347 253416935 164973169
            -1442185137 -905881496 1964337010</internalNodes>
          <leafValues>
            -5.6031572818756104e-01 2.2035299241542816e-01</leafValues></_>
        <_>
          <internalNodes>
            0 -1 81 1340074715 -1210847013 -943533243 748667999
            1271622299 1780476415 1412140011 1280166759</internalNodes>
          <leafValues>
            -3.9703702926635742e-01 3.4496775269508362e-01</leafValues></_>
        <_>
          <internalNodes>
            0 -1 44 583361136 67404118 1342206686 -606302118 981880853
            2056781952 -1735820376 -17764052</internalNodes>
          <leafValues>
            -6.1261701583862305e-01 2.1249242126941681e-01</leafValues></_>
        <_>
          <internalNodes>
            0 -1 7 -337672802 -889685780 -1071591272 1951183264
            -1157513738 -2005334015 1108132426 1170304048</internalNodes>
          <leafValues>
            -4.5481881499290466e-01 2.7872213721275330e-01</leafValues></_>
        <_>
          <internalNodes>
            0 -1 18 -10652885 -1087401958 -855473601 1207433363
            1898586617 2017497777 2146945831 1148713778</internalNodes>
          <leafValues>
            -4.4324538111686707e-01 2.8743448853492737e-01</leafValues></_>
        <_>
          <internalNodes>
            0 -1 57 1697672790 424394847 -1073180457 1352919266
            2051934551 -1064271872 1493395711 1933670942</internalNodes>
          <leafValues>
            -6.5076178312301636e-01 2.0471064746379852e-01</leafValues></_>
        <_>
          <internalNodes>
            0 -1 20 -1047230308 -376093280 -1342148208 -171576563
            1485990133 449888412 1620970188 111993741</internalNodes>
          <leafValues>
            -4.4322890043258667e-01 3.0257260799407959e-01</leafValues></_>
        <_>
          <internalNodes>
            0 -1 64 -577284447 792875334 1090646370 -6830888 -1147459393
            -2104258333 185175486 149933747</internalNodes>
          <leafValues>
            -3.7618002295494080e-01 3.5828587412834167e-01</leafValues></_>
        <_>
          <internalNodes>
            0 -1 13 1644176530 -269221731 268439966 -829111789
            1090681624 -385122263 -402416962 1837564623</internalNodes>
          <leafValues>
            -4.4240286946296692e-01 3.0771794915199280e-01</leafValues></_>
        <_>
          <internalNodes>
            0 -1 43 1576656885 1065094911 -1359003747 1063857919
            -8536481 255786879 1610497534 1879041919</internalNodes>
          <leafValues>
            -2.7166071534156799e-01 5.1732373237609863e-01</leafValues></_>
        <_>
          <internalNodes>
            0 -1 67 1343619921 -1856356269 -1879031409 -1836150784
            940295131 -1719410687 160655821 81665176</internalNodes>
          <leafValues>
            -7.1120136976242065e-01 1.9058315455913544e-01</leafValues></_>
        <_>
          <internalNodes>
            0 -1 1 -1533196815 -103661168 -2147386798 777245203
            1073966074 -754741118 1351369179 468586733</internalNodes>
          <leafValues>
            -4.5891284942626953e-01 2.8047323226928711e-01</leafValues></_>
        <_>
          <internalNodes>
            0 -1 80 1346141170 -1342058095 -1048342329 966689560
            1344150463 -1299543878 432255223 185614708</internalNodes>
          <leafValues>
            -5.6276899576187134e-01 2.3019053041934967e-01</leafValues></_>
        <_>
          <internalNodes>
            0 -1 72 -134383629 -1679006869 -65547 -34803927 -1073741965
            -1430290498 2130705918 -2058355014</internalNodes>
          <leafValues>
            -2.8251501917839050e-01 4.8043358325958252e-01</leafValues></_>
        <_>
          <internalNodes>
            0 -1 55 769684263 222351382 -260046827 -1560649588
            1107390724 -1199570742 -376870894 -143361225</internalNodes>
          <leafValues>
            -6.4133960008621216e-01 2.2231838107109070e-01</leafValues></_>
        <_>
          <internalNodes>
            0 -1 10 -929310444 144433154 -805285376 1912963331
            -897334901 -1593638911 -1862028863 87013672</internalNodes>
          <leafValues>
            -4.9695825576782227e-01 2.5727707147598267e-01</leafValues></_>
        <_>
          <internalNodes>
            0 -1 4 1396786400 853004488 -1861986160 400789575
            -1073704512 855801994 -1331524440 1368028892</internalNodes>
          <leafValues>
            -4.5954605937004089e-01 3.0397576093673706e-01</leafValues></_></weakClassifiers></_></stages>
  <features>
    <_>
      <rect>
        0 0 11 8</rect></_>
    <_>
      <rect>
        0 1 8 4</rect></_>
    <_>
      <rect>
        0 3 12 7</rect></_>
    <_>
      <rect>
        0 8 12 5</rect></_>
    <_>
      <rect>
        0 14 1 1</rect></_>
    <_>
      <rect>
        0 14 2 1</rect></_>
    <_>
      <rect>
        0 16 5 3</rect></_>
    <_>
      <rect>
        0 19 2 3</rect></_>
    <_>
      <rect>
        0 20 6 2</rect></_>
    <_>
      <rect>
        0 23 8 3</rect></_>
    <_>
      <rect>
        1 4 4 7</rect></_>
    <_>
      <rect>
        1 8 6 9</rect></_>
    <_>
      <rect>
        1 13 5 4</rect></_>
    <_>
      <rect>
        1 27 8 2</rect></_>
    <_>
      <rect>
        2 0 9 10</rect></_>
    <_>
      <rect>
        2 0 11 12</rect></_>
    <_>
      <rect>
        2 8 6 4</rect></_>
    <_>
      <rect>
        2 23 4 4</rect></_>
    <_>
      <rect>
        2 33 1 1</rect></_>
    <_>
      <rect>
        2 33 2 1</rect></_>
    <_>
      <rect>
        3 0 9 4</rect></_>
    <_>
      <rect>
        3 1 8 6</rect></_>
    <_>
      <rect>
        3 1 11 7</rect></_>
    <_>
      <rect>
        3 5 7 7</rect></_>
    <_>
      <rect>
        3 17 11 6</rect></_>
    <_>
      <rect>
        3 26 5 3</rect></_>
    <_>
      <rect>
        4 21 4 3</rect></_>
    <_>
      <rect>
        4 24 6 4</rect></_>
    <_>
      <rect>
        7 30 3 2</rect></_>
    <_>
      <rect>
        8 1 7 7</rect></_>
    <_>
      <rect>
        8 5 8 6</rect></_>
    <_>
      <rect>
        8 10 6 4</rect></_>
    <_>
      <rect>
        8 13 9 6</rect></_>
    <_>
      <rect>
        8 24 9 4</rect></_>
    <_>
      <rect>
        9 0 6 3</rect></_>
    <_>
      <rect>
        9 1 3 4</rect></_>
    <_>
      <rect>
        9 9 6 4</rect></_>
    <_>
      <rect>
        9 12 3 5</rect></_>
    <_>
      <rect>
        9 25 1 1</rect></_>
    <_>
      <rect>
        9 29 3 2</rect></_>
    <_>
      <rect>
        10 26 6 3</rect></_>
    <_>
      <rect>
        11 8 5 2</rect></_>
    <_>
      <rect>
        12 11 4 2</rect></_>
    <_>
      <rect>
        12 12 3 4</rect></_>
    <_>
      <rect>
        12 20 3 1</rect></_>
    <_>
      <rect>
        12 26 3 2</rect></_>
    <_>
      <rect>
        14 10 3 4</rect></_>
    <_>
      <rect>
        14 18 1 1</rect></_>
    <_>
      <rect>
        14 24 1 1</rect></_>
    <_>
      <rect>
        15 10 2 2</rect></_>
    <_>
      <rect>
        15 21 1 1</rect></_>
    <_>
      <rect>
        16 11 3 3</rect></_>
    <_>
      <rect>
        16 19 1 1</rect></_>
    <_>
      <rect>
        17 15 3 2</rect></_>
    <_>
      <rect>
        17 15 6 6</rect></_>
    <_>
      <rect>
        17 17 1 1</rect></_>
    <_>
      <rect>
        17 26 2 1</rect></_>
    <_>
      <rect>
        18 4 4 5</rect></_>
    <_>
      <rect>
        18 20 1 1</rect></_>
    <_>
      <rect>
        18 23 1 1</rect></_>
    <_>
      <rect>
        19 21 4 2</rect></_>
    <_>
      <rect>
        19 22 1 1</rect></_>
    <_>
      <rect>
        19 25 1 1</rect></_>
    <_>
      <rect>
        19 26 3 2</rect></_>
    <_>
      <rect>
        19 29 5 2</rect></_>
    <_>
      <rect>
        20 10 5 5</rect></_>
    <_>
      <rect>
        20 18 1 1</rect></_>
    <_>
      <rect>
        20 23 2 2</rect></_>
    <_>
      <rect>
        21 27 3 1</rect></_>
    <_>
      <rect>
        23 30 3 2</rect></_>
    <_>
      <rect>
        24 5 4 6</rect></_>
    <_>
      <rect>
        24 12 4 3</rect></_>
    <_>
      <rect>
        24 24 4 3</rect></_>
    <_>
      <rect>
        24 28 2 1</rect></_>
    <_>
      <rect>
        25 1 3 2</rect></_>
    <_>
      <rect>
        26 21 3 2</rect></_>
    <_>
      <rect>
        30 15 1 2</rect></_>
    <_>
      <rect>
        30 31 1 1</rect></_>
    <_>
      <rect>
        31 7 1 1</rect></_>
    <_>
      <rect>
        31 33 1 1</rect></_>
    <_>
      <rect>
        33 14 1 1</rect></_>
    <_>
      <rect>
        33 33 1 1</rect></_></features></cascade>
</opencv_storage>
